{"numInputs":3,"numOutputs":3,"numHidden":1,"numNeuronPerHidden":20,"learnRate":0.19200310111045838,"layers":[{"numNeurons":20,"neurons":[{"numInputs":3,"bias":-8.721297362556701,"output":0.9999999999999991,"error":-1.3304504539361865e-12,"weights":[0.5439716671462181,2.3030256999656268,6.990978585485329],"inputs":[0.6,1.0,0.9]},{"numInputs":3,"bias":119942029.825445,"output":-1.0,"error":-3002.0882584292935,"weights":[-73252377.7835418,-95529434.07911982,-87247940.33155054],"inputs":[0.6,1.0,0.9]},{"numInputs":3,"bias":119838367.50583668,"output":-1.0,"error":-2999.434101168067,"weights":[-73180637.06837218,-95443806.94174986,-87170630.66132076],"inputs":[0.6,1.0,0.9]},{"numInputs":3,"bias":-7.480912755253616,"output":0.9999999999999854,"error":-2.1930824191682364e-11,"weights":[3.763389047034594,3.4327947954146604,3.4435935311250476],"inputs":[0.6,1.0,0.9]},{"numInputs":3,"bias":-2819.9507665457127,"output":1.0,"error":0.0,"weights":[1.5003073691391454,2.766865345615041,2541.762294191583],"inputs":[0.6,1.0,0.9]},{"numInputs":3,"bias":-312.7841903825297,"output":1.0,"error":0.0,"weights":[251.44120731120396,282.77106200766868,4.75531678757919],"inputs":[0.6,1.0,0.9]},{"numInputs":3,"bias":119430499.74880944,"output":-1.0,"error":-2991.9061821935493,"weights":[-72940451.93423257,-95117038.87078484,-86880463.36854998],"inputs":[0.6,1.0,0.9]},{"numInputs":3,"bias":-8.561027733327429,"output":0.9999999999999698,"error":-4.519434334289255e-11,"weights":[1.0342763472355155,1.6329252157818957,5.66782196733873],"inputs":[0.6,1.0,0.9]},{"numInputs":3,"bias":-4.5433776521904039,"output":0.9999999999997415,"error":-3.8689967182354957e-10,"weights":[1.9510138462507177,4.945351548729177,4.643489707952584],"inputs":[0.6,1.0,0.9]},{"numInputs":3,"bias":-1783.8301298052158,"output":1.0,"error":0.0,"weights":[3.5103654964924266,1609.9036856576522,1249.2374565955542],"inputs":[0.6,1.0,0.9]},{"numInputs":3,"bias":-1365.3620289093874,"output":1.0,"error":0.0,"weights":[680.1351052268432,1.8514709234117167,1225.6598019747687],"inputs":[0.6,1.0,0.9]},{"numInputs":3,"bias":119825672.46181666,"output":-1.0,"error":-2999.354686042226,"weights":[-73182086.27279161,-95435298.63947937,-87165115.04062687],"inputs":[0.6,1.0,0.9]},{"numInputs":3,"bias":-7.096986703086813,"output":0.9999999999999796,"error":-3.068505991766383e-11,"weights":[5.070082357482529,3.255298541759696,3.0141968185228937],"inputs":[0.6,1.0,0.9]},{"numInputs":3,"bias":-7.512905702271313,"output":0.9999999999999987,"error":-1.9938941269780627e-12,"weights":[3.87133368650319,3.626030713686413,4.485236601408113],"inputs":[0.6,1.0,0.9]},{"numInputs":3,"bias":119654638.97113861,"output":-1.0,"error":-2994.05840480078,"weights":[-73077366.77763738,-95295359.19244263,-87044307.20542683],"inputs":[0.6,1.0,0.9]},{"numInputs":3,"bias":119933448.97239132,"output":-1.0,"error":-3004.1114883269643,"weights":[-73246739.8115396,-95524745.26327214,-87239011.67083366],"inputs":[0.6,1.0,0.9]},{"numInputs":3,"bias":-35.089726622772527,"output":1.0,"error":0.0,"weights":[19.35168156783721,20.64775874577905,4.723957002804911],"inputs":[0.6,1.0,0.9]},{"numInputs":3,"bias":119829418.74407155,"output":-1.0,"error":-3001.2693017401516,"weights":[-73177609.42819438,-95439112.00292433,-87162827.29390595],"inputs":[0.6,1.0,0.9]},{"numInputs":3,"bias":-406.08890186879128,"output":1.0,"error":0.0,"weights":[282.427569804158,363.20853317195687,1.4865757644433824],"inputs":[0.6,1.0,0.9]},{"numInputs":3,"bias":-4.674102765907039,"output":0.9999999999999836,"error":-2.465380416100783e-11,"weights":[3.620431405267384,5.7050456267726459,4.077877367521643],"inputs":[0.6,1.0,0.9]}]},{"numNeurons":3,"neurons":[{"numInputs":20,"bias":44912.27850261349,"output":0.9926685425531854,"error":-0.010135433849438545,"weights":[2242.9552735867187,-2248.400047245602,-2248.0703344315416,2244.0614388007148,2246.1650940372474,2246.0435569851707,-2243.670662664991,2245.330279571147,2238.6190231299256,2242.4344724016964,2246.4348110009005,-2247.3029351821906,2246.2288978308993,2247.8931523330593,-2245.862310013139,-2248.220500566361,2245.7078643029827,-2247.7009087875067,2241.754295132546,2246.90315639132],"inputs":[0.9999999999999991,-1.0,-1.0,0.9999999999999854,1.0,1.0,-1.0,0.9999999999999698,0.9999999999997415,1.0,1.0,-1.0,0.9999999999999796,0.9999999999999987,-1.0,-1.0,1.0,-1.0,1.0,0.9999999999999836]},{"numInputs":20,"bias":16141.122117484694,"output":-0.9647126570434934,"error":-1.8285001318306702,"weights":[806.8073436520613,-808.4672413330071,-807.7432296711701,805.994898230982,807.9607471338549,808.0370775955763,-805.7091892338786,806.0522855439979,806.2783263291086,808.1672825547292,807.1295070438645,-807.7258401546607,809.056868708289,806.0487302983271,-806.2855734359586,-809.0214718214166,805.4993001113152,-808.2471198305296,804.0837207558071,808.1325885290323],"inputs":[0.9999999999999991,-1.0,-1.0,0.9999999999999854,1.0,1.0,-1.0,0.9999999999999698,0.9999999999997415,1.0,1.0,-1.0,0.9999999999999796,0.9999999999999987,-1.0,-1.0,1.0,-1.0,1.0,0.9999999999999836]},{"numInputs":20,"bias":10703.890292596061,"output":-0.9999749541463131,"error":0.000050089825505150945,"weights":[531.3831039646288,-535.7992206310629,-533.4320548913216,533.9081824247032,536.3652153957743,534.1592174672809,-535.9015658608972,535.904868553272,534.5194310326593,534.2095382827096,536.004248473626,-536.0853953874347,535.6408945515049,534.521315199369,-536.31247946971,-535.3158649029314,533.2199282923326,-533.8043380285386,536.4758888782507,535.2834863372489],"inputs":[0.9999999999999991,-1.0,-1.0,0.9999999999999854,1.0,1.0,-1.0,0.9999999999999698,0.9999999999997415,1.0,1.0,-1.0,0.9999999999999796,0.9999999999999987,-1.0,-1.0,1.0,-1.0,1.0,0.9999999999999836]}]}]}